digraph Tree {
node [shape=box, style="filled, rounded", color="black", fontname=helvetica] ;
edge [fontname=helvetica] ;
0 [label="relationship <= 0.5\ngini = 0.366\nsamples = 32561\nvalue = [24720, 7841]\nclass = i", fillcolor="#eda978"] ;
1 [label="edu-num <= 12.5\ngini = 0.495\nsamples = 13193\nvalue = [7275, 5918]\nclass = i", fillcolor="#fae7da"] ;
0 -> 1 [labeldistance=2.5, labelangle=45, headlabel="True"] ;
2 [label="gini = 0.442\nsamples = 9224\nvalue = [6178, 3046]\nclass = i", fillcolor="#f2bf9b"] ;
1 -> 2 ;
3 [label="gini = 0.4\nsamples = 3969\nvalue = [1097, 2872]\nclass = n", fillcolor="#85c2ef"] ;
1 -> 3 ;
4 [label="capital-gain <= 7073.5\ngini = 0.179\nsamples = 19368\nvalue = [17445, 1923]\nclass = i", fillcolor="#e88f4f"] ;
0 -> 4 [labeldistance=2.5, labelangle=-45, headlabel="False"] ;
5 [label="gini = 0.146\nsamples = 18932\nvalue = [17431, 1501]\nclass = i", fillcolor="#e78c4a"] ;
4 -> 5 ;
6 [label="gini = 0.062\nsamples = 436\nvalue = [14, 422]\nclass = n", fillcolor="#40a0e6"] ;
4 -> 6 ;
}